{
  "input_nodes": 3,
  "hidden_nodes": 5,
  "output_nodes": 5,
  "weights_ih": {
    "rows": 5,
    "cols": 3,
    "data": [
      [
        1.6061594047348677,
        -1.808295806694649,
        0.8746013397610791
      ],
      [
        -1.2008919584227167,
        -0.3408588034355927,
        0.6806691858189062
      ],
      [
        -2.123018332348194,
        0.13504433744602362,
        -0.3692570012111047
      ],
      [
        0.18794814666105752,
        2.304880276025789,
        -0.4576092882529324
      ],
      [
        0.7117013956544304,
        -1.5257792499271658,
        1.0741514070972917
      ]
    ]
  },
  "weights_ho": {
    "rows": 5,
    "cols": 5,
    "data": [
      [
        -0.3742046579887565,
        0.4829648958182504,
        1.0288344902725823,
        -0.14402446149123163,
        1.9130905273343943
      ],
      [
        -1.2200154444772848,
        -0.9519700620175005,
        -0.5166918798378024,
        -1.5574685607054537,
        -0.05457824998628913
      ],
      [
        0.7257800711871627,
        1.0085701283467734,
        -0.6400734887836776,
        0.7119106299597335,
        0.4135220010984488
      ],
      [
        0.7421136018284795,
        -0.42570284707979417,
        -0.19725585912181443,
        0.7592591130335835,
        1.559273565315682
      ],
      [
        1.2994523382133196,
        1.1698585152982943,
        0.2548272676700079,
        -0.9118804300485277,
        1.4721233994737035
      ]
    ]
  },
  "bias_h": {
    "rows": 5,
    "cols": 1,
    "data": [
      [
        1.1192997438506032
      ],
      [
        -0.1935850874262452
      ],
      [
        -0.9452146485281061
      ],
      [
        -0.6496619007550551
      ],
      [
        1.6662345905406306
      ]
    ]
  },
  "bias_o": {
    "rows": 5,
    "cols": 1,
    "data": [
      [
        -0.199206047213503
      ],
      [
        3.901173714107229
      ],
      [
        -0.17257672000847404
      ],
      [
        -0.8050750977182493
      ],
      [
        -0.5948654069924395
      ]
    ]
  },
  "learning_rate": 0.1,
  "activation_function": {}
}
